SVM-light Version V6.20
0 # kernel type
3 # kernel parameter -d 
1 # kernel parameter -g 
1 # kernel parameter -s 
1 # kernel parameter -r 
empty# kernel parameter -u 
67 # highest feature index 
19 # number of training documents 
2 # number of support vectors plus 1 
0 # threshold b, each following line is a SV (starting with alpha*y)
1 1:0.14113487 2:-0.06785626 5:-0.11720424 6:-0.19104971 7:0.37405285 8:0.10146261 9:-0.091483504 10:0.071850315 12:0.18534635 13:-0.054299116 14:0.20132177 15:-0.26859313 16:0.084693193 19:0.012720441 20:0.012720441 21:-0.012720441 22:-0.05434861 45:0.098678231 46:0.098678231 47:-0.081321768 48:0.018567631 49:-0.018567631 50:0.018567631 51:-0.018567631 53:0.20132177 54:-0.10418651 55:-0.10418651 56:-0.10418651 57:-0.10418651 58:-0.0027541481 59:-0.14132178 60:-0.062754139 61:-0.14132178 62:-0.14132178 63:-0.020449838 65:-0.020449838 #
